simple_rnn/simple_rnn_cell/kernel:0
(5, 80)
[[-0.22659011  0.01835246 -0.13351272 -0.18217517  0.13425249 -0.12400488
   0.19839562  0.18793178 -0.244404   -0.1258706   0.07535175  0.03598798
  -0.09530007  0.04824357 -0.1198338  -0.2688334   0.16988878 -0.23449467
   0.01751861  0.19977154 -0.07746769 -0.07238012 -0.04508122 -0.06971398
  -0.16745272  0.08971672 -0.05927849 -0.19877934 -0.12352558  0.12682319
  -0.03508412  0.15907435  0.19587994  0.07668557  0.17059489  0.13478372
   0.15177108  0.05928467 -0.09832646 -0.25314525 -0.03035765 -0.05711825
  -0.22785576 -0.16849692 -0.15228544 -0.1390775   0.08862836  0.10949303
  -0.1427285   0.13361959  0.14046834  0.2151659  -0.19106616 -0.02933375
   0.02340556  0.1156313  -0.06591396  0.15110543 -0.02334246 -0.16135721
   0.07449144 -0.07633139 -0.15983023 -0.23120128  0.20201707 -0.18642198
  -0.13573962 -0.03182065 -0.041164   -0.171398   -0.19886129 -0.08705118
  -0.1233756   0.03402924  0.01120479 -0.03514534  0.15994693 -0.12697056
   0.12855504 -0.2113675 ]
 [-0.15867373  0.11476718 -0.18171197  0.03738579  0.2079707   0.014393
   0.18025641  0.02751803  0.15831852  0.04734431 -0.09187491 -0.01833394
   0.02048916 -0.11934276 -0.19041058  0.0317461  -0.12176524  0.20866923
  -0.00696314 -0.25257522 -0.00759829 -0.1690542  -0.00045317  0.05301237
  -0.00927642 -0.23187104  0.09414835  0.11000156  0.11519175  0.04422554
  -0.20674403 -0.23305462 -0.05634639 -0.07430682 -0.02328913  0.0649774
  -0.19025521 -0.10985272 -0.2106186  -0.10084324  0.1610071  -0.11389146
  -0.02042433 -0.14277536  0.23741677 -0.0363735   0.02730429  0.1797358
   0.00241638 -0.00236999 -0.01573005 -0.09903023  0.11252063  0.09852525
  -0.00235244 -0.13070594 -0.16368309 -0.05043076  0.17598078  0.01300249
   0.05893553  0.20532185 -0.14572279 -0.03147581  0.00502099  0.13925052
   0.25183296  0.09890643  0.02383619  0.15202947  0.06777621  0.04822856
   0.23108938  0.11928277 -0.12087156  0.01166253 -0.22797833  0.17315818
  -0.24522792  0.16113514]
 [ 0.12104931 -0.15013699  0.09257844  0.23269549 -0.05791734 -0.20454124
  -0.26815757 -0.15966342  0.19917575 -0.08625347 -0.13407986  0.07089013
   0.17739433 -0.12932923  0.24243341  0.24933402 -0.25164562  0.10979697
  -0.08727568 -0.11066275 -0.18310402  0.23791026  0.1553819   0.12877737
   0.01421554  0.11219048  0.03481625 -0.15977395  0.18412104  0.03150885
   0.15997815  0.06083361 -0.18847959 -0.01585667  0.05276131  0.12068374
   0.17922284  0.15580976  0.05940159  0.13195439 -0.0903082  -0.13215223
   0.09712563  0.13663732 -0.17455705  0.15459049 -0.05132952 -0.13987555
   0.13498169 -0.1452601  -0.11284009 -0.16378567  0.07045402  0.1557652
  -0.163965    0.08686474 -0.05691026 -0.16825649  0.16534182  0.16024655
   0.10667856  0.02634406  0.06128528  0.00971212 -0.14454971 -0.00262647
  -0.1340026   0.04736578 -0.13989149 -0.06860843  0.246794    0.20327331
   0.19288935  0.13330854  0.21880044  0.10238586 -0.15154855  0.18887618
   0.12984225  0.06370054]
 [ 0.19249214  0.16842236  0.11492721  0.07303336 -0.17185679  0.13095751
   0.05743072  0.17468058  0.0062541  -0.07569098  0.07322489  0.11191803
  -0.07241783  0.05471236 -0.09281617  0.07844469  0.08525621  0.04336914
  -0.04966369  0.15730332  0.17485279 -0.13660826 -0.2443556  -0.11939038
   0.22349338 -0.03589363 -0.25330126  0.23890524 -0.11533889 -0.06962663
   0.07623049 -0.08137106  0.05199039  0.0511653  -0.24118418 -0.0661233
  -0.12846266  0.08897384  0.04634481  0.29698497  0.07777233  0.03584256
   0.17292042 -0.09341384 -0.05077602 -0.12284144 -0.1470823  -0.01671366
  -0.0413336   0.19630523  0.01320163  0.22436817 -0.19045003  0.04245512
  -0.03201938 -0.08317582  0.02602893 -0.06493316 -0.06177716 -0.1884037
  -0.2793054  -0.11185864 -0.06561773  0.1689615   0.07972731 -0.18430248
   0.00782325 -0.1964079  -0.06954315 -0.09095266 -0.0284661   0.04289921
  -0.17469144  0.00182749 -0.12398415  0.12055978  0.17739052 -0.17584985
   0.08089248 -0.15544064]
 [ 0.1122905  -0.03418783  0.09926892  0.06030886  0.1609228   0.01783541
  -0.07242537 -0.17173713  0.03607839  0.03638539 -0.11318192  0.07344507
  -0.17000434  0.14320357 -0.02376659 -0.02223491  0.07455827  0.07676051
   0.0680942  -0.1493167   0.09206261  0.04880136 -0.05992213 -0.12581027
  -0.02561392  0.00498563  0.01573841  0.02922614  0.01718806 -0.20896982
   0.06318783  0.04267597 -0.09452053 -0.09850711 -0.00441541  0.11714944
   0.02727601 -0.06137354  0.02290943 -0.06449511  0.08745927  0.09894609
  -0.10234921  0.08753949  0.07544955  0.07461695  0.02842824 -0.1893882
  -0.07082805  0.07618447  0.14941442  0.03608584  0.07924348  0.11776752
   0.14484172 -0.03697848  0.08053811 -0.01456828 -0.16187772  0.03102468
  -0.11149503 -0.0854359   0.11636263  0.14520687  0.07069691  0.01390082
  -0.13822629  0.03821393  0.12098023 -0.1290515  -0.02003113  0.05026151
   0.03280434  0.12465438  0.10411496 -0.12230098 -0.01584108  0.1012867
  -0.05386668 -0.05415984]]
simple_rnn/simple_rnn_cell/recurrent_kernel:0
(80, 80)
[[ 6.2510818e-02 -7.6121047e-02 -2.7246293e-01 ...  2.5697125e-02
  -3.6905207e-02 -6.0213394e-02]
 [ 4.5429077e-02 -4.0434211e-02  1.3806440e-01 ... -1.9889951e-01
  -3.7335850e-02  2.5533300e-02]
 [ 3.9674964e-02 -1.7661135e-01  6.1639436e-02 ...  2.4993205e-02
  -7.8996763e-02  6.9147900e-02]
 ...
 [-1.5341838e-01  5.7410661e-02 -6.9493324e-02 ...  2.4561835e-02
   7.4335016e-02  6.0917165e-02]
 [ 1.1447903e-01 -1.7714394e-02  1.6179483e-01 ...  1.2584917e-01
   1.0287894e-02  9.0351656e-02]
 [ 1.1255994e-01  2.2590708e-04  4.6187639e-02 ... -4.1394018e-02
  -2.5220826e-01 -5.4158103e-02]]
simple_rnn/simple_rnn_cell/bias:0
(80,)
[ 0.0051907  -0.04136062  0.03582221 -0.05595214 -0.05156701  0.05203249
 -0.0543738  -0.06800614 -0.04596045  0.09194463  0.04780461 -0.07570399
  0.01016594  0.03286945  0.04307519 -0.03647845  0.03664597 -0.04019096
  0.04518354  0.02583892  0.03416588  0.04906503  0.05982117  0.01882094
 -0.02006661  0.01975611  0.07384901  0.00431774 -0.02465489 -0.03766762
 -0.00594031  0.02423107  0.01205736 -0.01545613  0.01871655 -0.09480915
 -0.00828458 -0.0694998   0.07737283 -0.02704751 -0.0561254   0.08916044
  0.00209279  0.08599056  0.05037992  0.04961252  0.02589037 -0.02602744
  0.0200674  -0.06921082 -0.02914134 -0.06908067  0.05351406 -0.08368418
  0.05462261  0.00117484  0.07869902  0.0485954  -0.07745941  0.04929473
  0.01299641 -0.01420449  0.10492582  0.01748558 -0.05673384  0.07460117
  0.01615497  0.01971113  0.07311824  0.06362837 -0.03557012 -0.07572604
 -0.03406614 -0.08913938 -0.00393104 -0.06171166  0.0235799  -0.02776363
 -0.0297217   0.05658606]
simple_rnn_1/simple_rnn_cell_1/kernel:0
(80, 100)
[[-0.08723065 -0.02929389  0.07156657 ... -0.12726626  0.11195857
   0.08413971]
 [ 0.03887474 -0.21256396  0.00831178 ...  0.05461499 -0.05805283
   0.11425687]
 [-0.09085166 -0.06112886  0.03442073 ...  0.15302587 -0.01898972
   0.08609886]
 ...
 [-0.1550938   0.07647929  0.13513367 ... -0.04361119  0.05661601
   0.13226724]
 [-0.11112649 -0.09233581 -0.03511747 ... -0.11848103  0.11549891
   0.00793706]
 [-0.17316246  0.07624675  0.05515754 ...  0.0022071   0.08129998
  -0.1469311 ]]
simple_rnn_1/simple_rnn_cell_1/recurrent_kernel:0
(100, 100)
[[-0.02975497 -0.05772876  0.0061993  ... -0.13798764 -0.08930057
  -0.09985476]
 [-0.27651042 -0.0036217   0.1297262  ...  0.21831594  0.04343855
  -0.0938962 ]
 [-0.07500887 -0.0175624   0.08748656 ... -0.03077319  0.06841637
   0.05220412]
 ...
 [ 0.08548769 -0.00208006  0.03826716 ... -0.11556681 -0.17373443
  -0.05983206]
 [-0.13524117 -0.06465109  0.05778085 ...  0.09359836 -0.05715514
   0.0473001 ]
 [ 0.07410099 -0.03222062 -0.08271383 ...  0.11408934 -0.01804614
   0.08641346]]
simple_rnn_1/simple_rnn_cell_1/bias:0
(100,)
[-0.00041617 -0.03785054 -0.01708958  0.02052648  0.01354943  0.01028166
 -0.01300802 -0.01638726 -0.00692248 -0.015341   -0.02735252  0.02044146
 -0.00193286  0.00354722  0.00417787  0.00174594 -0.01487201 -0.00372031
 -0.00044894  0.01379435 -0.03140974 -0.01664451 -0.01589224 -0.00818054
 -0.00554607 -0.01745622 -0.00071484  0.01231513  0.00169376  0.01037618
 -0.0001736  -0.00847001 -0.00719209  0.03128722 -0.01392481 -0.00311612
 -0.00916726 -0.00761205 -0.02185748  0.01319775  0.01561076 -0.02730346
 -0.01097655  0.02525993  0.01981798  0.00569969  0.02194863  0.0108434
  0.00551688  0.00174375  0.01778728  0.01146077 -0.01614573 -0.0159019
  0.01702894  0.01271995  0.0125733  -0.01146974 -0.01496285  0.00116905
 -0.00374284 -0.0303028  -0.01021336  0.01514846  0.01607139  0.01240862
 -0.01581598  0.05688681 -0.01420915 -0.0105145  -0.0007658  -0.01257339
 -0.00158346  0.02695204  0.01075912  0.02305131  0.01239166 -0.03912491
  0.00145744 -0.01153565 -0.01257453 -0.02314915  0.02072612  0.0147276
  0.01550896 -0.02490702 -0.01596188  0.00703255  0.00320606  0.00661771
  0.00586892 -0.01229142  0.00541128  0.01998204 -0.00309555  0.00234951
  0.01135346  0.01021392 -0.00398725 -0.02753413]
dense/kernel:0
(100, 1)
[[ 0.07092123]
 [-0.16173711]
 [-0.15118788]
 [ 0.08158313]
 [ 0.03053893]
 [ 0.06759173]
 [-0.08548839]
 [-0.10154919]
 [-0.06880283]
 [-0.11743081]
 [-0.04273744]
 [ 0.04348407]
 [-0.04002072]
 [ 0.08890184]
 [ 0.07131418]
 [ 0.02250483]
 [-0.14133379]
 [-0.16451243]
 [ 0.03444998]
 [ 0.02298257]
 [-0.04720075]
 [ 0.04207622]
 [-0.10158671]
 [-0.06683138]
 [-0.02560222]
 [-0.04094531]
 [-0.13959956]
 [ 0.02100073]
 [ 0.03179574]
 [ 0.11615631]
 [ 0.05689346]
 [-0.02970368]
 [-0.12005328]
 [ 0.02767683]
 [-0.03407732]
 [ 0.02787746]
 [-0.02911097]
 [-0.01359054]
 [-0.11368494]
 [ 0.09007084]
 [ 0.06454538]
 [-0.02923944]
 [-0.03162108]
 [ 0.05255755]
 [ 0.10857684]
 [ 0.13343455]
 [ 0.02805075]
 [ 0.10811789]
 [ 0.06109497]
 [ 0.03446008]
 [ 0.11978036]
 [ 0.08382558]
 [-0.03016029]
 [-0.0404848 ]
 [ 0.06258426]
 [ 0.04512351]
 [ 0.08831299]
 [-0.11154403]
 [-0.02564144]
 [ 0.09704373]
 [ 0.01638781]
 [-0.07126308]
 [ 0.03808377]
 [ 0.08718947]
 [ 0.06182811]
 [ 0.01802542]
 [-0.03456241]
 [ 0.04066813]
 [-0.07796264]
 [-0.08014987]
 [-0.02853932]
 [-0.03319963]
 [ 0.08927876]
 [ 0.02673207]
 [ 0.11402169]
 [ 0.08722648]
 [ 0.07593292]
 [-0.04766392]
 [-0.02200089]
 [-0.14106621]
 [-0.02714183]
 [-0.03865807]
 [-0.02475543]
 [ 0.0545691 ]
 [ 0.04347441]
 [-0.11936082]
 [-0.02291984]
 [ 0.13060506]
 [ 0.04885128]
 [ 0.10362856]
 [ 0.10488365]
 [-0.11188708]
 [ 0.03530446]
 [ 0.02565369]
 [-0.02317825]
 [-0.06856076]
 [ 0.07595022]
 [ 0.0299778 ]
 [ 0.02334661]
 [-0.07351141]]
dense/bias:0
(1,)
[0.26835436]
