simple_rnn/simple_rnn_cell/kernel:0
(6, 80)
[[-0.23384833 -0.04762459  0.21024482 -0.00424537  0.20607845 -0.07274625
  -0.09660417  0.07789288 -0.2232791   0.2339981   0.18656886  0.15893051
   0.04751835  0.15980844 -0.17412487 -0.18011232 -0.07415337  0.15287113
   0.10844206 -0.14779623 -0.1487317  -0.20988744 -0.05490595 -0.01308062
  -0.18426053 -0.20319068 -0.08163767  0.02973003  0.13143887  0.06705265
  -0.0757952  -0.13842027  0.18554568 -0.0144283  -0.3112422   0.22929746
   0.21890391 -0.11604372 -0.36666414 -0.12130085  0.13592094  0.08732902
  -0.14286229  0.13090926 -0.22445539  0.10390157  0.14794485 -0.08727363
   0.15777245  0.01904607 -0.14991714  0.10394877  0.0779243   0.01988585
  -0.03594081  0.1858216   0.20952536 -0.12629199 -0.13497265 -0.11313123
   0.04039792 -0.04405344 -0.0006043   0.19712153 -0.18570644 -0.02025421
  -0.06743421  0.09985486  0.27032477 -0.11941606 -0.00947688  0.0709557
   0.12746093  0.15974939 -0.02989004  0.13312256  0.14457959 -0.08107207
   0.01289036  0.07427435]
 [ 0.12145916  0.04295595  0.00691237  0.19040902 -0.02780044 -0.21455726
   0.05923425 -0.12015707  0.05397329 -0.02261759 -0.20710252 -0.22392987
   0.08371108  0.1551418   0.19332603 -0.07108474 -0.09691331 -0.3177859
  -0.27897033 -0.08415513  0.14995106  0.04056611 -0.24051069 -0.23263413
   0.22177447 -0.09860472 -0.02432856  0.11674767  0.23348413 -0.04490582
   0.03257228  0.04823909  0.01136235  0.11866054 -0.09119658  0.0891366
   0.14336997  0.12402683 -0.21222253 -0.18946895  0.06672275  0.03108826
   0.07943817 -0.18093228  0.24471702 -0.13287096  0.03637141  0.2714857
  -0.18310928  0.16335341  0.19629644 -0.063652   -0.00467143  0.11543296
   0.26805204 -0.12686211 -0.2981453  -0.15990646 -0.04302235 -0.02542356
   0.25013375  0.04447189  0.00529379  0.19076085  0.2455876   0.183646
   0.05250601 -0.20830327  0.02256773 -0.05956689  0.2866634   0.33066326
   0.02605526 -0.03855238 -0.17503509  0.11197925 -0.14652264 -0.18362969
   0.23031826 -0.13354997]
 [-0.09066664  0.00630671  0.16126202 -0.17767663 -0.19030759  0.02831014
   0.2952653   0.11489528  0.19843769  0.01477775  0.1161081   0.14453082
   0.21521457 -0.22941278 -0.18689662 -0.26113588 -0.11633725  0.12337282
  -0.2664276   0.13431013 -0.17461365 -0.1951122   0.2416543  -0.03916795
  -0.25009626  0.24214546  0.2930826  -0.12686166  0.19326071 -0.07203293
  -0.16329515  0.26235142 -0.05708704 -0.02128695 -0.02921127 -0.25121537
   0.1888115   0.23406185 -0.0383447  -0.13187197 -0.03954953 -0.15115562
   0.0810238  -0.14378199 -0.0052125  -0.07698383  0.09923208 -0.17263632
  -0.20110387  0.0229098   0.25541487  0.10554636 -0.03671778 -0.16567698
  -0.00527751  0.15984654  0.1073984   0.11038834 -0.04314537  0.05888159
  -0.01782164  0.00556713  0.10835224  0.01206805  0.08614906 -0.15021864
   0.05037666 -0.08859237 -0.04364753  0.11768268 -0.13664341  0.28840697
  -0.05770063 -0.03723971 -0.13909504  0.13475798  0.00846958 -0.24420142
   0.01586523  0.04926381]
 [ 0.15565749 -0.04710794 -0.17332791  0.12553585  0.02200684 -0.21868712
   0.01617003 -0.13038965 -0.00883186  0.08711793 -0.04379384 -0.03879176
  -0.20876372  0.209886   -0.02546323 -0.03928838  0.09565153  0.01051188
  -0.16753271  0.09648969  0.14418955  0.248119   -0.26148155 -0.13078298
   0.07976464  0.01277903  0.03419676  0.03881059 -0.18439436  0.00169341
  -0.18352792 -0.05902901 -0.04258285  0.02221071 -0.0175103   0.0412205
  -0.01695652 -0.1514858   0.10507323 -0.13607542  0.02336747 -0.1884391
   0.16761975  0.13160485  0.12593323  0.21494262 -0.13892761 -0.00270329
   0.10937036 -0.0518457  -0.16582121  0.05864524  0.07416622  0.13605195
   0.00553111 -0.20752901 -0.2078251   0.05121779  0.13025169  0.06455524
  -0.16670528 -0.04701042 -0.18919219 -0.09770347 -0.08844849  0.01358619
  -0.18964918  0.05447043 -0.2020428  -0.0535038   0.3138413  -0.1141525
   0.1704833  -0.09058592  0.08755579 -0.16388491 -0.05245695  0.1416405
  -0.0459348  -0.10626386]
 [-0.05878867 -0.34877393  0.09374177 -0.27647582  0.1367582   0.12538557
  -0.0644226   0.26359698 -0.134315   -0.28588903 -0.03468935 -0.01525774
   0.12415233 -0.11247768  0.10602804  0.35669646  0.12481485  0.12167966
  -0.0538198  -0.28134245 -0.20716237  0.17595343  0.0256831   0.11484717
  -0.30428454  0.11640263 -0.05790793 -0.12291465  0.3713498   0.11661174
   0.16208103 -0.21673827  0.097817   -0.14542967 -0.07996262  0.00330614
   0.25538328 -0.01068289  0.02917726 -0.04823399  0.05033649 -0.07501688
  -0.01314377  0.11985074  0.06577918 -0.02867136  0.3427074  -0.05815685
  -0.05444897 -0.01858185  0.23927574 -0.10770684  0.3169556   0.27589166
   0.23675518 -0.00830646  0.03515554  0.32759348 -0.0571938  -0.15201057
   0.3123481  -0.0364608  -0.2760921   0.01437116  0.2796569   0.30143708
   0.11951958 -0.24557391 -0.06684063  0.15886179 -0.163611   -0.00237636
  -0.33747035 -0.09766844 -0.33671108 -0.08728306  0.07261327 -0.11340637
  -0.18241435 -0.22090934]
 [-0.1262959  -0.01273056  0.03363605 -0.07880025 -0.16903225  0.176005
  -0.09708294  0.10450788 -0.02402645 -0.13048184 -0.06193687 -0.07409781
   0.00939992 -0.09071162  0.10435963  0.18014765  0.08505587  0.15346101
   0.18436311  0.0221093   0.24703492  0.12642017  0.04513172  0.12811
  -0.0035549   0.06751242 -0.01978833 -0.15566608 -0.0643895   0.03744409
   0.20239368 -0.0578414  -0.1104665  -0.05836856  0.15666224 -0.04979263
  -0.18670943 -0.00283032 -0.01351358  0.01819927 -0.04555319  0.13468114
   0.0219791  -0.00472563 -0.16774553 -0.14489067 -0.0096456  -0.05723829
   0.05279839  0.02472515 -0.11772037 -0.2157937   0.02006229  0.01165036
   0.06512403 -0.09093225  0.12179407  0.10748252  0.05656008 -0.08126978
   0.02349102  0.06775659  0.02068893 -0.05191424 -0.0301979  -0.09178196
  -0.13361806  0.13158596  0.22485992  0.02071521 -0.07197597 -0.13008866
  -0.05756859  0.03451936 -0.09003086  0.02683635 -0.00959357  0.16731906
  -0.01260347 -0.09725247]]
simple_rnn/simple_rnn_cell/recurrent_kernel:0
(80, 80)
[[ 0.12595022  0.1393061   0.0807519  ... -0.04585378 -0.01376558
   0.11076657]
 [-0.06713497  0.13437283 -0.12860063 ...  0.07003026  0.01265553
  -0.16736777]
 [ 0.0788533  -0.10304625  0.13780713 ...  0.12108295 -0.05690847
   0.08171843]
 ...
 [-0.03259519 -0.15337294  0.13756081 ... -0.0075687  -0.1341584
  -0.02443824]
 [ 0.09189156 -0.24027604 -0.15045634 ...  0.02978368  0.11799989
   0.08106525]
 [-0.1531535  -0.07193311 -0.0061271  ... -0.06628029 -0.01618956
  -0.07975814]]
simple_rnn/simple_rnn_cell/bias:0
(80,)
[ 0.14216107  0.15243919 -0.12493604  0.12083135  0.06146592 -0.05696275
 -0.13319683 -0.12640995  0.07443643 -0.07636284 -0.14550494  0.11541738
 -0.1161611  -0.10299297 -0.12167051  0.06749184  0.03909281 -0.18874319
  0.12121925  0.05634294 -0.16003515 -0.09550475 -0.10452033 -0.09216468
  0.0274518  -0.07023436 -0.07197978 -0.0697305  -0.03786924  0.12982555
 -0.10648897 -0.04485774 -0.05499126  0.10752988  0.10360418 -0.07659218
 -0.13542476 -0.14591724  0.05490086 -0.07101147 -0.0534448   0.11225551
 -0.1213848  -0.09860817  0.08641765  0.13287246 -0.04103859 -0.07780553
  0.08887091 -0.10603946 -0.12081973  0.11658974 -0.09274533 -0.08062101
  0.05071551  0.08381229  0.02061947 -0.11580788  0.09277857 -0.03082778
 -0.12036911 -0.1502522  -0.07648951 -0.07023601  0.01576745  0.08341669
  0.11123669 -0.05931904 -0.14786775  0.05508259 -0.03210238  0.12453137
  0.0527469  -0.06115716  0.09197321  0.07008612  0.07802743  0.0906674
 -0.0195138  -0.01814402]
simple_rnn_1/simple_rnn_cell_1/kernel:0
(80, 100)
[[ 0.05922213  0.15509143 -0.17988797 ...  0.12298202  0.08458606
   0.16599043]
 [-0.10030022  0.10987485 -0.13313274 ... -0.15811428  0.1288296
  -0.11957596]
 [-0.04747465 -0.15513444 -0.06069778 ...  0.13852362 -0.14836232
   0.14548188]
 ...
 [-0.17114453  0.16011237  0.04043851 ... -0.05759212  0.02253142
   0.12953031]
 [-0.04458277  0.13116463 -0.03044323 ... -0.11830036  0.15660933
   0.10041016]
 [-0.0754543  -0.06397529  0.09339055 ...  0.18047558  0.04685821
   0.10856139]]
simple_rnn_1/simple_rnn_cell_1/recurrent_kernel:0
(100, 100)
[[ 0.11010683 -0.02736103  0.04879925 ...  0.16445047  0.02334592
   0.19274911]
 [-0.02598396  0.15377438 -0.06171097 ... -0.00579125 -0.05048705
   0.03213969]
 [ 0.18310104 -0.16272113  0.04237962 ...  0.02983546  0.25848693
  -0.21187732]
 ...
 [-0.06063196  0.11530883  0.0572359  ...  0.20010073  0.07349885
  -0.04739942]
 [-0.00728133 -0.1948528  -0.23680969 ... -0.1043082  -0.2100911
   0.03156347]
 [-0.03152768 -0.11821639 -0.06938825 ... -0.1326983  -0.06477643
  -0.05392159]]
simple_rnn_1/simple_rnn_cell_1/bias:0
(100,)
[-0.0358805  -0.07312803 -0.07816289  0.13116717  0.00555644  0.09290101
 -0.07103673  0.03970701 -0.07278261  0.08145881 -0.04000481 -0.08066402
  0.05934465  0.05015768  0.11234605  0.06292701 -0.07565646 -0.1060342
 -0.09637399  0.01474326  0.10718006  0.05033295 -0.02343486 -0.07967027
 -0.0034706  -0.11440739 -0.04188595 -0.00474052  0.14342739 -0.11116225
  0.05205521  0.00682233  0.05398953  0.07273311 -0.0551738   0.00697407
  0.08363901 -0.10130262  0.09984098  0.13105112 -0.09643009 -0.03718019
  0.06030684 -0.03259477 -0.04439922 -0.06218233 -0.11275411  0.07995027
  0.04613268 -0.07899831 -0.08740815  0.06453067  0.0634747  -0.08368175
  0.07245751  0.05261746 -0.08980681 -0.03579028  0.09311725  0.09798516
 -0.07015458  0.0121353   0.00488615 -0.10401718 -0.07397658 -0.06806433
 -0.16832323 -0.05457452 -0.04745089 -0.06025049  0.09050138  0.08254611
  0.05705215 -0.04590384 -0.05012409 -0.14582175  0.11241913  0.07719667
  0.06425931  0.07902475  0.1433616   0.07467579 -0.11129846 -0.08028976
 -0.12812798 -0.1164997   0.0716086   0.05127506  0.08197109 -0.10160826
  0.03697513  0.02821496 -0.15148823 -0.03287755 -0.05988155 -0.11950632
  0.07162125  0.05900803  0.09023885 -0.04456393]
dense/kernel:0
(100, 1)
[[-0.00450638]
 [-0.00960211]
 [-0.03322017]
 [ 0.01179996]
 [-0.00493103]
 [ 0.00199518]
 [-0.0182186 ]
 [ 0.00548921]
 [-0.00669805]
 [ 0.02241939]
 [-0.00116318]
 [-0.01374228]
 [ 0.01126986]
 [ 0.0034668 ]
 [ 0.03889712]
 [ 0.01184456]
 [-0.01581896]
 [-0.01187243]
 [-0.0329634 ]
 [-0.00145108]
 [ 0.01148901]
 [ 0.01485981]
 [ 0.0010275 ]
 [ 0.0032586 ]
 [-0.00095199]
 [-0.01062424]
 [ 0.00357525]
 [-0.0075736 ]
 [ 0.01403011]
 [-0.00911184]
 [ 0.01501575]
 [-0.02147796]
 [ 0.00192301]
 [ 0.01796619]
 [-0.0253273 ]
 [-0.00087753]
 [ 0.00216711]
 [-0.01945123]
 [ 0.00107359]
 [ 0.03114998]
 [-0.00396771]
 [-0.01187528]
 [ 0.0189145 ]
 [-0.00517881]
 [ 0.00799969]
 [ 0.00041697]
 [-0.00373574]
 [ 0.01549974]
 [ 0.01705823]
 [-0.00480336]
 [-0.00708675]
 [ 0.02262859]
 [ 0.01421949]
 [-0.01688853]
 [ 0.02842061]
 [ 0.00866311]
 [-0.02362372]
 [-0.00812879]
 [ 0.00792202]
 [ 0.03246172]
 [-0.01025019]
 [ 0.01430129]
 [-0.01650178]
 [-0.02276025]
 [-0.01044263]
 [-0.01528943]
 [-0.00321537]
 [ 0.00108708]
 [ 0.00021314]
 [-0.00302084]
 [ 0.00762365]
 [ 0.00318953]
 [ 0.01034717]
 [-0.01142437]
 [-0.02418303]
 [-0.01832396]
 [ 0.02646137]
 [ 0.01868248]
 [ 0.01652306]
 [ 0.02248697]
 [ 0.01509083]
 [ 0.01384517]
 [-0.02556584]
 [-0.02827997]
 [-0.02580696]
 [-0.00060646]
 [-0.00748557]
 [ 0.0086459 ]
 [ 0.00260217]
 [-0.01677591]
 [ 0.02486379]
 [ 0.00055285]
 [-0.00846234]
 [ 0.0005747 ]
 [-0.00680753]
 [-0.02770878]
 [ 0.02026248]
 [ 0.00385509]
 [ 0.02104966]
 [-0.01119193]]
dense/bias:0
(1,)
[0.3153567]
