simple_rnn/simple_rnn_cell/kernel:0
(10, 80)
[[ 1.82204217e-01 -1.23864502e-01  1.91723585e-01 -2.23098472e-01
   1.69082642e-01  2.01614588e-01 -2.70575099e-02  2.28391603e-01
   8.04198906e-02 -2.07861885e-01 -2.69021820e-02  4.64220196e-02
  -2.03612477e-01 -1.92001358e-01  1.91437811e-01  2.16396704e-01
  -1.32786870e-01 -2.18883436e-02  1.19723581e-01  1.47122502e-01
   1.78827122e-01 -1.04050219e-01  1.64698869e-01 -5.06195473e-03
   6.67110533e-02 -7.81816319e-02  2.15972155e-01  1.50825009e-02
  -1.55865774e-01  4.07090373e-02  1.92814693e-01  9.50104091e-03
  -1.16597727e-01 -1.79442048e-01 -1.65711969e-01 -8.17731619e-02
  -4.37490083e-02  8.85804817e-02 -1.32208830e-02  2.19666827e-02
   1.99782506e-01 -7.20683038e-02 -2.21246347e-01  1.76693156e-01
   3.99219170e-02 -1.59736022e-01 -1.44755989e-01  1.01113439e-01
   5.17921932e-02  2.87688524e-02 -1.85365185e-01  1.11102484e-01
  -1.36370853e-01 -7.93564767e-02  2.23664522e-01 -2.20577508e-01
  -2.30214164e-01  2.45563805e-01  3.33338603e-02 -6.81825280e-02
  -1.64715186e-01  1.28677398e-01  1.92526162e-01 -1.21371917e-01
   1.72934845e-01  2.42802069e-01  5.44705428e-02  9.39596519e-02
  -6.61672503e-02 -1.12165153e-01  9.83295590e-02  2.39436895e-01
   1.82324365e-01 -3.44254337e-02  1.80470660e-01 -1.30251274e-01
  -2.30538115e-01 -1.20799236e-01 -1.93736985e-01 -1.99640319e-01]
 [ 1.84190162e-02  8.13928545e-02  2.09351420e-01  7.84999412e-03
  -2.09090039e-02 -7.86739960e-02  1.38136700e-01  5.17118610e-02
   1.39052808e-01  2.49561235e-01 -3.28794792e-02  2.02325165e-01
   1.54159898e-02  1.16683707e-01  8.66650864e-02  2.26288438e-01
  -2.48057932e-01  1.86176106e-01 -1.98013172e-01 -1.86764568e-01
  -1.12729423e-01  6.89458027e-02  7.35241026e-02  2.46183798e-01
  -3.48651633e-02 -2.54885014e-02 -2.67198056e-01 -8.08933452e-02
  -2.50818878e-02 -2.89845672e-02  1.09132938e-01  1.98595077e-02
   1.91643655e-01 -1.34654269e-01 -5.05639613e-02  1.30498022e-01
   2.23482355e-01 -6.78905249e-02  8.16885158e-02 -3.93202342e-02
   3.72025510e-03  5.31368330e-02  9.67314094e-02 -1.89332902e-01
  -4.56477404e-02  3.94308334e-03  1.63919806e-01  1.50586098e-01
  -1.81893423e-01  5.33999465e-02  2.48166192e-02  2.33973458e-01
  -1.25077531e-01 -2.29334369e-01  5.29812388e-02  2.11026892e-01
   4.95429523e-02 -1.17460430e-01  1.07210420e-01  1.48096234e-01
  -2.20122874e-01 -2.32271984e-01  5.65153882e-02  1.13726510e-02
  -5.82304783e-02  2.07947642e-02  1.98632985e-01 -1.10697374e-01
  -3.21056545e-02 -1.63033649e-01  1.57200843e-01  1.52769923e-01
   1.36299422e-02  1.37036234e-01 -1.57285765e-01  1.05444947e-02
   4.88938615e-02  1.15918487e-01  1.01011200e-02 -2.12886006e-01]
 [-2.07094640e-01 -1.03495687e-01  1.47279352e-01 -3.87743972e-02
  -1.97189033e-01  1.88672379e-01  1.93027928e-02 -1.00658290e-01
   7.72776529e-02  2.38440439e-01 -1.23923413e-01 -1.08700722e-01
  -1.03424292e-03  1.27448484e-01  1.04431279e-01  1.20598964e-01
   2.42125735e-01 -6.07509837e-02  1.57641575e-01  2.29240179e-01
   1.17583252e-01  8.73726159e-02  2.38182485e-01 -2.48314828e-01
   2.17300653e-01 -1.09807059e-01 -2.01173007e-01 -1.04097761e-01
   2.51170367e-01 -1.77312434e-01 -1.13533787e-01 -3.71761918e-02
   6.71026781e-02  1.75184030e-02  2.40532652e-01 -6.76421672e-02
  -1.06691502e-01  1.65368021e-01  1.02903068e-01  1.08003452e-01
   9.70956683e-03  1.51459992e-01  1.38674691e-01  2.31768250e-01
  -1.59230828e-01  1.69780180e-02  1.11940905e-01  2.07080767e-01
  -9.93673503e-03  1.30036920e-01 -1.65783674e-01 -1.94923170e-02
  -4.98420969e-02  2.01846331e-01 -1.51153520e-01 -2.99564172e-02
   7.82923400e-03 -1.43888846e-01 -1.95582598e-01  1.77698687e-01
   2.71807492e-01 -2.25150689e-01 -2.41974562e-01  2.92679649e-02
   6.85388818e-02 -2.23118603e-01  6.18344285e-02  2.26225525e-01
  -2.37905130e-01 -8.98509845e-02 -3.62497866e-02 -9.32093412e-02
   7.55403638e-02 -2.48724863e-01 -1.70866296e-01 -1.86917000e-02
  -1.12684011e-01  1.44692436e-01 -1.96758568e-01  2.61704810e-02]
 [ 1.89376995e-01 -1.47389829e-01  6.48915172e-02  1.74878672e-01
   4.50728610e-02  1.25154242e-01  4.38064151e-02  1.06091566e-01
   9.83696431e-02  1.79758489e-01  2.46601254e-01 -1.48089781e-01
  -7.54085332e-02  1.95071220e-01 -2.26345450e-01 -1.52334437e-01
  -1.97053492e-01  7.98046738e-02  2.23729804e-01 -1.43889129e-01
  -7.59966746e-02 -1.93390489e-01  8.47521424e-02  1.12151183e-01
   1.48964748e-01 -3.79368514e-02  1.11773543e-01  2.33976115e-02
  -4.64866608e-02 -1.96503848e-02 -1.33855864e-01  2.28094570e-02
   8.90853703e-02  2.08439350e-01  2.02527538e-01  1.66084573e-01
   1.30652815e-01 -2.31146485e-01  6.35181030e-04  5.61344251e-02
   2.27678418e-01 -1.62309721e-01 -1.66615218e-01  2.57437021e-01
   1.81101754e-01 -1.44673333e-01 -4.41473760e-02  1.39924884e-01
  -1.61300406e-01  1.07712597e-02 -5.56515679e-02 -1.48319870e-01
   2.48269558e-01 -1.34940714e-01  1.47180364e-01  7.77859148e-03
   9.33364928e-02 -2.13045001e-01  2.11443037e-01 -1.66297436e-01
  -1.77079409e-01  2.13104844e-01  2.28190556e-01  1.17089212e-01
  -9.36625153e-02 -2.23675087e-01 -4.32947539e-02 -2.38511577e-01
  -2.15528421e-02  3.16298567e-02 -1.21181004e-01 -1.76502198e-01
   2.24269927e-02 -1.09864436e-01  1.64832838e-03 -1.85854360e-01
  -1.17547296e-01  3.09503209e-02 -8.16281736e-02 -5.10635413e-02]
 [-1.98260978e-01 -2.12474391e-01  1.03215631e-02  1.11910643e-03
  -5.53672202e-02  7.33166859e-02 -2.16040500e-02 -2.23799814e-02
  -1.71787724e-01  9.07207727e-02 -4.82575819e-02  5.96289698e-04
   2.93061025e-02 -7.86087885e-02 -1.05012953e-01  3.07540745e-02
  -2.72052847e-02 -1.44474804e-01  7.25653842e-02  3.56077887e-02
   2.40331832e-02 -5.22473194e-02  1.38690710e-01  1.50581170e-03
   1.55413195e-01 -1.28721654e-01  2.08391488e-01  3.06984019e-02
   2.34552063e-02  1.54473811e-01  5.85632883e-02 -2.63216525e-01
  -1.98227838e-01 -1.12475324e-02 -1.32946938e-01  6.25073686e-02
  -4.74342369e-02  3.93464118e-02  6.58595711e-02  1.12056740e-01
  -1.83074072e-01  2.53993869e-01 -4.18345891e-02  2.54369706e-01
   1.44861996e-01  2.31968239e-02 -9.40366834e-02  3.22368219e-02
  -1.08454823e-01 -9.37458575e-02 -8.93402845e-02 -1.39737025e-01
   1.49095520e-01  5.98112009e-02 -2.00356349e-01  9.54201072e-03
   8.63134675e-03 -1.75803885e-01  1.11996353e-01 -8.54445808e-03
   3.10199126e-03  2.36882418e-02  6.96021616e-02 -2.35077232e-01
  -8.96629691e-02  5.78942485e-02 -2.24735871e-01  1.57474041e-01
   8.46823212e-03 -4.35272139e-03  1.41310558e-01 -1.06309958e-01
  -1.55629635e-01 -1.36423782e-01 -9.67030749e-02 -2.42640033e-01
  -1.76031098e-01  1.34254590e-01 -2.32420936e-01  1.49616569e-01]
 [ 6.70499578e-02  1.59973413e-01 -2.31769562e-01 -2.13976428e-01
  -1.88889265e-01  1.67889535e-01 -1.71669200e-01  1.40333101e-01
   5.94993308e-03  1.19339533e-01 -9.61786583e-02  5.14835864e-02
   1.32685646e-01 -1.13938905e-01 -1.66270852e-01 -9.93658695e-03
   1.25339389e-01  1.57088280e-01 -5.94361052e-02  1.58326671e-01
  -8.31016898e-02 -8.24825652e-03 -1.98750347e-01 -1.63863167e-01
  -2.52488703e-01  5.66750579e-02  1.79658860e-01 -1.58042330e-02
  -5.64760976e-02  2.34094128e-01 -8.85375813e-02  2.07390085e-01
   7.75311291e-02  4.60892282e-02  1.15681477e-01 -2.14186087e-01
   1.07423134e-01  3.85996401e-02 -1.77408308e-01  1.20679259e-01
   3.51596698e-02 -3.69737968e-02  2.45179474e-01 -2.47445464e-01
  -1.93464100e-01  3.27596650e-03  1.93809330e-01 -9.71584618e-02
  -1.49568021e-01  2.30343103e-01  1.29970402e-01  4.45287898e-02
  -8.59721079e-02  4.34110314e-02  6.01438098e-02 -1.99364781e-01
  -1.13013476e-01 -1.73195496e-01  1.69625193e-01  2.87667606e-02
  -1.25634477e-01  1.20155208e-01  2.09282130e-01 -1.27328455e-01
  -1.76032007e-01  1.53907523e-01 -2.48691499e-01 -1.74932688e-01
  -2.12599859e-01  1.16323300e-01 -1.53884307e-01 -1.89979061e-01
  -8.17162320e-02 -2.36200005e-01  1.00927025e-01 -1.66375428e-01
   1.38939157e-01  7.77506903e-02  6.71930686e-02  2.11932734e-01]
 [-1.07739568e-01 -1.00793645e-01 -2.22016394e-01  7.09674656e-02
  -6.78686351e-02 -2.54919142e-01 -1.37073517e-01  2.42045969e-01
  -1.42459959e-01  3.54581140e-02  7.17856139e-02 -1.71336442e-01
  -1.16690673e-01 -1.72590613e-01  2.26643786e-01 -1.81684285e-01
  -2.29675695e-01  8.73084292e-02 -1.00453950e-01  2.26564944e-01
   9.80451852e-02  1.87914371e-01 -1.36594519e-01  3.01770102e-02
  -1.59821317e-01 -2.07612321e-01 -2.37686336e-01 -1.25396485e-02
  -7.63782859e-02  6.59836642e-03  4.28225286e-02  9.91771221e-02
   1.74128130e-01 -7.39092287e-03  1.50363192e-01  2.65092969e-01
   2.25766256e-01  2.18491957e-01  5.66788390e-02 -1.83692440e-01
  -5.83561249e-02 -2.36063004e-01  2.22252369e-01  5.89966550e-02
   1.88988283e-01 -1.29727706e-01  5.76517805e-02  1.55103967e-01
   9.63193104e-02 -3.66540104e-02 -1.03909858e-01 -1.50263235e-01
   4.93110493e-02  1.30428955e-01  2.00465232e-01  1.16505861e-01
   1.08666636e-01 -1.23898029e-01 -1.62261188e-01 -6.58546314e-02
   3.07012238e-02 -2.48596802e-01  7.96210319e-02  1.05297947e-02
  -2.00014010e-01  1.19951174e-01  1.90461576e-01 -6.19728155e-02
   1.29715264e-01  1.45005271e-01 -2.51698107e-01  2.02056617e-01
  -8.28762427e-02  2.11846363e-02  9.76468548e-02  3.21918614e-02
  -2.25980580e-01  1.00508533e-01  1.20929621e-01  2.39010528e-02]
 [-1.67525098e-01 -1.74200952e-01 -1.82803497e-01  1.07146643e-01
   7.65477791e-02  7.95550197e-02  1.51184022e-01 -9.74375233e-02
  -1.64863825e-01  4.41071345e-03 -3.17193009e-02  5.84300868e-02
   2.58453172e-02 -9.78021044e-03  2.27111489e-01  1.22467071e-01
   5.27717397e-02  1.91208243e-01  2.36848727e-01 -3.25427242e-02
   2.65706982e-02 -1.51808128e-01 -1.13209233e-01  2.05913261e-01
  -2.36420691e-01 -1.55595213e-01  1.46662518e-01  9.34699252e-02
  -3.35371234e-02 -1.77883372e-01  5.47913238e-02 -1.70784697e-01
   1.25348896e-01 -1.99478641e-01  1.41719922e-01 -2.15039164e-01
   5.76603040e-02 -1.78371340e-01  1.94440708e-01 -1.82225749e-01
   1.71955705e-01 -1.12773247e-01 -2.17408985e-01 -4.36417274e-02
   1.71090573e-01 -1.82898149e-01  3.71922851e-02 -1.82181254e-01
  -1.20420396e-01  9.12491307e-02  1.30340755e-01 -1.22546546e-01
  -1.28954872e-01  1.24552008e-02 -8.88685286e-02  1.87960342e-01
   2.44477376e-01  5.94603755e-02 -6.25580624e-02  1.86851040e-01
  -7.61525482e-02  1.76643670e-01 -2.29542762e-01  2.39272743e-01
   1.25294060e-01 -7.01112486e-03 -1.18585072e-01 -1.43470049e-01
   2.67272256e-02  7.18780831e-02  1.44661754e-01  2.05933526e-01
  -4.86647598e-02 -1.17752165e-01 -2.31065258e-01  1.16853669e-01
   1.34330019e-01  4.80137952e-02 -9.69277769e-02 -1.29606009e-01]
 [-1.91736549e-01  1.98776513e-01  2.48866498e-01 -1.46453112e-01
  -1.33087263e-01  1.34500578e-01  1.52679697e-01  7.81102777e-02
  -1.47321552e-01 -2.12022349e-01 -7.50608891e-02 -1.30804464e-01
  -6.12410903e-02 -2.07658246e-01 -8.38062987e-02  1.80518866e-01
   8.58359337e-02 -8.21793154e-02 -2.30901837e-01  9.36380401e-02
  -3.50751122e-03  6.71026707e-02  7.60635687e-03  3.20603214e-02
  -5.74505050e-03  1.48567319e-01 -2.52780896e-02 -9.45779756e-02
   1.51922062e-01 -2.14196384e-01  1.54540449e-01  1.02296874e-01
  -5.25001138e-02 -8.19441900e-02  9.32828486e-02  2.03278139e-01
  -1.14875413e-01 -4.25891280e-02 -1.70608416e-01 -2.98289973e-02
  -2.32595578e-01  1.84143573e-01 -1.07354313e-01  2.15592712e-01
   1.80485755e-01 -7.63699040e-02 -6.15569055e-02  2.04878300e-01
   2.14293778e-01  1.43558206e-03 -2.13855267e-01  6.14856742e-02
  -1.46169856e-01 -1.96961299e-01  1.75228223e-01  1.02531791e-01
  -1.59970090e-01 -7.13322237e-02  3.18250693e-02 -1.97543368e-01
   5.77596910e-02  1.34477034e-01  1.63902357e-01  8.00138488e-02
   1.58327371e-01 -2.04325661e-01 -1.95055038e-01  1.42109871e-01
  -4.20803800e-02  3.42891403e-02 -2.09339216e-01 -4.51922528e-02
  -2.13829890e-01  1.17104210e-01  1.16542682e-01  2.08939224e-01
   1.88991010e-01 -1.21536531e-01  1.92812428e-01  1.30859226e-01]
 [ 7.20483735e-02 -2.13975221e-01 -9.32209194e-02  4.77406867e-02
   1.49010569e-01 -2.51054525e-01 -1.13201916e-01  1.48486560e-02
   2.31720537e-01  9.08047333e-02 -1.37030527e-01  2.46141717e-01
  -8.97482038e-02  1.45003289e-01  1.75445792e-04  9.41012353e-02
   1.77004486e-01  1.92203939e-01 -9.46196448e-03 -9.30906907e-02
  -2.11586401e-01  1.37061805e-01 -1.28449410e-01 -2.19728008e-01
   1.33747354e-01 -2.38170940e-03 -6.23132251e-02  1.65023565e-01
  -1.71682164e-01  1.70063198e-01  2.12108940e-01  1.17588416e-01
  -6.77493587e-03 -1.61614075e-01 -1.75933436e-01 -3.89695093e-02
  -1.72888026e-01  1.05381101e-01  2.27220252e-01 -1.28555551e-01
  -2.19505876e-01 -2.45914206e-01  1.50274053e-01 -2.36560330e-01
   1.43627405e-01  1.70918796e-02 -1.72793135e-01 -2.46367186e-01
   3.18233259e-02 -2.29392260e-01 -8.21944401e-02  1.83954194e-01
   1.41601622e-01 -2.18300864e-01 -1.19778588e-02  1.57072455e-01
  -1.74490601e-01 -1.23094730e-01  1.40391442e-03  1.66651279e-01
   5.30344546e-02  1.46874145e-01  2.67652534e-02 -1.85204566e-01
   2.20782273e-02 -9.78837460e-02 -2.00843439e-01  1.98866054e-01
  -1.28439277e-01 -2.21848741e-01  1.63080916e-01  1.53997064e-01
   1.04975939e-01  2.53154188e-01  1.01829231e-01  9.43467170e-02
  -1.72443584e-01  3.74440253e-02 -1.79193452e-01  1.63199857e-01]]
simple_rnn/simple_rnn_cell/recurrent_kernel:0
(80, 80)
[[-0.24286377 -0.18864973 -0.04401523 ... -0.15794437 -0.08092896
   0.05227315]
 [ 0.03693271  0.09721596 -0.09704273 ... -0.21519344  0.02558934
   0.14587691]
 [ 0.00740291  0.19940674 -0.15783632 ...  0.15731974 -0.00390826
  -0.06236555]
 ...
 [-0.04383812  0.16887575 -0.04976895 ... -0.07157943  0.01592546
  -0.14501584]
 [-0.06205942 -0.00499383  0.17507313 ... -0.10330994  0.01693437
  -0.15277936]
 [ 0.10314623 -0.18374254  0.10586707 ... -0.06118423  0.0789041
  -0.09823426]]
simple_rnn/simple_rnn_cell/bias:0
(80,)
[ 1.33448457e-02  2.05677897e-02 -7.29291374e-03  1.51111949e-02
  1.98845286e-02 -2.20636614e-02 -1.38715860e-02 -2.70111673e-03
  1.86848268e-02 -1.02757253e-02  1.07881585e-02 -2.20290348e-02
 -8.34327147e-05  4.41565812e-02 -4.19851439e-03 -4.03581969e-02
 -8.24047904e-03 -1.45892212e-02 -8.20286386e-03 -3.55719812e-02
 -1.13696242e-02 -6.48321304e-03 -3.58380633e-03 -6.83234888e-04
 -4.79748752e-03  2.99423169e-02 -1.48485051e-02 -2.44679535e-03
  4.29449603e-03  1.09242219e-02 -7.32062664e-03 -1.30303074e-02
 -1.69681869e-02  3.28131244e-02 -7.76707334e-03  6.73702220e-03
 -4.42298036e-03  2.98952102e-03 -8.12106580e-03  1.33494213e-02
  6.73129922e-04  6.32372359e-03  2.66416767e-03 -3.66689451e-03
 -3.38216014e-02  3.00852153e-02 -3.68636358e-03 -4.53689285e-02
  2.04787701e-02  8.36527068e-03  8.25409032e-03  2.16158014e-02
  2.90594753e-02  1.12603502e-02 -1.49386013e-02 -2.84836050e-02
  1.00368867e-02  1.35416421e-03 -7.73394573e-03 -1.28136957e-02
  1.47056002e-02 -5.74802654e-03 -8.50706175e-03  3.40678240e-03
 -1.26687922e-02  8.72051343e-03  7.26047810e-03  4.37606545e-03
  5.38622448e-03 -1.45341475e-02 -4.43237880e-03  7.51906482e-04
  9.89757665e-03  1.42582529e-03  1.86230019e-02  2.84743635e-03
  2.47142627e-03 -2.34776386e-03  1.85242034e-02 -4.55158250e-03]
simple_rnn_1/simple_rnn_cell_1/kernel:0
(80, 100)
[[-0.08645532 -0.07377236  0.00610805 ...  0.19372495  0.10563408
   0.09926233]
 [-0.0062406   0.02638042  0.00780656 ... -0.01375962 -0.10212019
   0.06549214]
 [-0.09753755  0.03828902 -0.06294715 ...  0.13465807 -0.05766145
   0.05393437]
 ...
 [ 0.02457125  0.01340005 -0.07181003 ...  0.03853634  0.14358123
  -0.13039584]
 [ 0.06030666 -0.11077631  0.03307969 ...  0.03439983  0.1454775
  -0.12024587]
 [ 0.10535946 -0.12464198 -0.11736327 ...  0.11020095  0.12262388
  -0.17105752]]
simple_rnn_1/simple_rnn_cell_1/recurrent_kernel:0
(100, 100)
[[-0.13984138 -0.08906841  0.06996481 ... -0.04034645 -0.20503202
  -0.06635671]
 [-0.02392444 -0.01067653 -0.03581751 ...  0.11011517 -0.02726823
  -0.13702254]
 [ 0.0669467   0.08214881 -0.0210355  ... -0.09968897 -0.08733131
  -0.05943051]
 ...
 [ 0.11263771 -0.05169336  0.02976536 ...  0.050104   -0.0066564
  -0.03630668]
 [ 0.12009016  0.07981847  0.03769113 ...  0.09820776 -0.03892037
  -0.06128773]
 [-0.04535837 -0.13996233  0.10054947 ... -0.01578936 -0.12060753
  -0.01666828]]
simple_rnn_1/simple_rnn_cell_1/bias:0
(100,)
[-3.3892170e-04 -3.2019990e-03 -2.3673971e-03  2.2113253e-04
  4.7986908e-03  5.3431033e-03 -2.5870203e-04  1.3303497e-03
 -1.1539187e-02  7.2205806e-04 -9.6425961e-04  4.6652681e-03
  7.1564447e-03 -8.1086075e-03 -1.3265468e-03  7.6617417e-03
  3.1013475e-04 -2.1763761e-03  1.3438618e-04  2.1270758e-03
 -4.3371958e-03  4.8022429e-03  4.2422833e-03 -7.7801007e-03
 -1.7225746e-02  7.3393085e-03  3.7181359e-03 -1.2605358e-02
 -4.2044302e-03 -2.8063403e-03  5.3387918e-03 -6.5398525e-04
 -1.2718189e-03  6.4859884e-03 -5.1511494e-03  1.2005754e-02
  4.6381191e-04 -1.3117895e-03 -4.4288943e-03 -1.0566700e-03
  1.3156682e-02 -9.2623453e-04  1.8304645e-03 -6.8249926e-04
  1.2810589e-03 -1.7321158e-03  1.2271923e-02  3.5085741e-03
  8.0415756e-03  8.7848026e-04  2.0441031e-03 -1.1602124e-03
 -9.8174987e-03 -2.4963184e-03  1.2394941e-02  7.2103296e-04
  3.2966244e-03  6.6304761e-03  3.3857506e-03  4.8773689e-03
  1.3337825e-02 -2.6836596e-02 -1.4248292e-02 -2.6795818e-03
  1.7747588e-03  4.1617872e-03  2.6253872e-03  1.9929645e-04
 -3.4823224e-03 -2.4719501e-03 -7.4767717e-04 -1.5654161e-03
 -1.8184098e-03  2.8784787e-03 -6.4456607e-03 -2.3965877e-03
 -9.3265710e-04 -4.4768830e-04 -1.2957699e-03  1.8383864e-02
  8.1578549e-03  7.2448091e-03  1.1526329e-02 -7.0680887e-03
  1.1213989e-02  8.7544660e-04 -9.9457856e-03 -4.2070728e-03
 -6.1823393e-04 -8.0187600e-03  5.1940307e-03  6.5347478e-03
 -5.6207357e-03 -2.0478263e-03  3.8914043e-03  7.4813426e-05
  6.7027955e-04 -1.0826519e-03  1.3113130e-02 -5.9187110e-03]
dense/kernel:0
(100, 1)
[[-0.15735915]
 [ 0.11539411]
 [-0.15937725]
 [-0.02725008]
 [-0.09257925]
 [ 0.02293396]
 [-0.10018973]
 [-0.2156169 ]
 [-0.0849774 ]
 [-0.07807755]
 [-0.11053292]
 [ 0.04844681]
 [ 0.07792129]
 [-0.09434308]
 [ 0.0133587 ]
 [-0.08844801]
 [ 0.14493512]
 [-0.19842534]
 [-0.11757281]
 [-0.18989147]
 [ 0.14865415]
 [-0.12817118]
 [-0.15480658]
 [ 0.14463206]
 [ 0.0588459 ]
 [ 0.17394046]
 [ 0.1936529 ]
 [-0.15679735]
 [ 0.18448272]
 [ 0.16811484]
 [-0.16157186]
 [ 0.12952697]
 [ 0.04229301]
 [ 0.1559916 ]
 [ 0.19228853]
 [ 0.11096815]
 [-0.1611076 ]
 [ 0.03013194]
 [ 0.12341432]
 [ 0.21588643]
 [ 0.09837495]
 [ 0.18625638]
 [-0.17529228]
 [-0.05881936]
 [-0.1563966 ]
 [-0.19545154]
 [ 0.08310201]
 [-0.02485779]
 [ 0.09714676]
 [-0.1418902 ]
 [ 0.16915159]
 [ 0.0752404 ]
 [-0.18381014]
 [ 0.1066328 ]
 [ 0.18611827]
 [-0.04183467]
 [-0.17959625]
 [ 0.0184218 ]
 [ 0.01706487]
 [ 0.17363462]
 [ 0.02240644]
 [ 0.00434523]
 [-0.0542717 ]
 [-0.14554866]
 [-0.12634428]
 [ 0.16638337]
 [-0.08124455]
 [-0.17861113]
 [ 0.00201464]
 [-0.14212596]
 [ 0.09837555]
 [-0.16849275]
 [-0.19276184]
 [ 0.13124624]
 [ 0.0275909 ]
 [ 0.19036308]
 [-0.10495131]
 [ 0.21687078]
 [-0.03503935]
 [ 0.158132  ]
 [ 0.07328247]
 [-0.07725981]
 [ 0.0985373 ]
 [ 0.05710354]
 [-0.13751073]
 [-0.16139755]
 [-0.2011033 ]
 [-0.0700144 ]
 [-0.09264092]
 [ 0.16448471]
 [-0.06395345]
 [ 0.19527885]
 [ 0.17860676]
 [-0.19351874]
 [-0.22279246]
 [-0.07048611]
 [ 0.02498453]
 [-0.01417893]
 [-0.07516725]
 [ 0.14538558]]
dense/bias:0
(1,)
[0.00306184]
